Language model created by QuickLM on Fri Oct 25 04:42:51 EDT 2019
Copyright (c) 1996-2010 Carnegie Mellon University and Alexander I. Rudnicky

The model is in standard ARPA format, designed by Doug Paul while he was at MITRE.

The code that was used to produce this language model is available in Open Source.
Please visit http://www.speech.cs.cmu.edu/tools/ for more information

The (fixed) discount mass is 0.5. The backoffs are computed using the ratio method.
This model based on a corpus of 14 sentences and 17 words

\data\
ngram 1=17
ngram 2=29
ngram 3=31

\1-grams:
-0.9611 </s> -0.3010
-0.9611 <s> -0.2507
-1.8062 BROWSER -0.2507
-2.1072 CATHY -0.2507
-1.8062 CLOSE -0.2872
-1.8062 DEPLOY -0.2507
-1.8062 DISCOVERY -0.2507
-1.8062 FILE -0.2942
-1.5051 GO -0.2872
-2.1072 HI -0.2976
-1.8062 INITIATE -0.2507
-2.1072 JUSTPERFORM -0.2507
-1.8062 MANAGER -0.2507
-1.8062 MODELLING -0.2507
-1.2621 OPEN -0.2545
-1.8062 PROCESS -0.2942
-1.5051 TO -0.2730

\2-grams:
-1.1461 <s> CLOSE 0.0000
-0.8451 <s> GO 0.0000
-1.4472 <s> HI 0.0000
-0.6021 <s> OPEN -0.0000
-0.3010 BROWSER </s> -0.3010
-0.3010 CATHY </s> -0.3010
-0.6021 CLOSE BROWSER 0.0000
-0.6021 CLOSE FILE 0.0000
-0.3010 DEPLOY </s> -0.3010
-0.3010 DISCOVERY </s> -0.3010
-0.3010 FILE MANAGER 0.0000
-0.3010 GO TO 0.0000
-0.3010 HI CATHY 0.0000
-0.3010 INITIATE </s> -0.3010
-0.3010 JUSTPERFORM </s> -0.3010
-0.3010 MANAGER </s> -0.3010
-0.3010 MODELLING </s> -0.3010
-1.1461 OPEN BROWSER 0.0000
-1.1461 OPEN DEPLOY 0.0000
-1.1461 OPEN FILE 0.0000
-1.1461 OPEN INITIATE 0.0000
-1.1461 OPEN JUSTPERFORM 0.0000
-1.1461 OPEN MODELLING 0.0000
-1.1461 OPEN PROCESS 0.0000
-0.3010 PROCESS DISCOVERY 0.0000
-0.9031 TO DEPLOY 0.0000
-0.9031 TO INITIATE 0.0000
-0.9031 TO MODELLING 0.0000
-0.9031 TO PROCESS 0.0000

\3-grams:
-0.6021 <s> CLOSE BROWSER
-0.6021 <s> CLOSE FILE
-0.3010 <s> GO TO
-0.3010 <s> HI CATHY
-1.1461 <s> OPEN BROWSER
-1.1461 <s> OPEN DEPLOY
-1.1461 <s> OPEN FILE
-1.1461 <s> OPEN INITIATE
-1.1461 <s> OPEN JUSTPERFORM
-1.1461 <s> OPEN MODELLING
-1.1461 <s> OPEN PROCESS
-0.3010 CLOSE BROWSER </s>
-0.3010 CLOSE FILE MANAGER
-0.3010 FILE MANAGER </s>
-0.9031 GO TO DEPLOY
-0.9031 GO TO INITIATE
-0.9031 GO TO MODELLING
-0.9031 GO TO PROCESS
-0.3010 HI CATHY </s>
-0.3010 OPEN BROWSER </s>
-0.3010 OPEN DEPLOY </s>
-0.3010 OPEN FILE MANAGER
-0.3010 OPEN INITIATE </s>
-0.3010 OPEN JUSTPERFORM </s>
-0.3010 OPEN MODELLING </s>
-0.3010 OPEN PROCESS DISCOVERY
-0.3010 PROCESS DISCOVERY </s>
-0.3010 TO DEPLOY </s>
-0.3010 TO INITIATE </s>
-0.3010 TO MODELLING </s>
-0.3010 TO PROCESS DISCOVERY

\end\
